к k 1.0000000
а a 0.9849200
я a 0.0150800
в v 1.0000000
з z 0.7453436
ж z 0.2546564
м m 1.0000000
р r 1.0000000
ы y 1.0000000
е e 1.0000000
г g 1.0000000
w w 1.0000000
б b 1.0000000
п p 1.0000000
NULL s 0.0373268
ш s 0.1521280
с s 0.8105452
q q 1.0000000
ж h 0.0706537
ш h 0.1612127
ч h 0.2674270
х h 0.5007066
я j 0.2200861
й j 0.7041508
ю j 0.0757631
ф f 1.0000000
л l 1.0000000
н n 1.0000000
x x 1.0000000
о o 1.0000000
и i 1.0000000
д d 1.0000000
у u 0.9850939
ю u 0.0149061
т t 0.9503315
ц t 0.0496685
ц c 0.5562599
ч c 0.4437401
