k к 1.0000000
a а 1.0000000
a я 0.5000000
v в 1.0000000
z з 1.0000000
z ж 0.5000000
m м 1.0000000
r р 1.0000000
y ы 1.0000000
e е 1.0000000
g г 1.0000000
w w 1.0000000
b б 1.0000000
p п 1.0000000
s NULL 1.0000000
s ш 0.5000039
s с 1.0000000
q q 1.0000000
h ж 0.5000000
h ш 0.4999961
h ч 0.5000000
h х 1.0000000
j я 0.5000000
j й 1.0000000
j ю 0.5000000
f ф 1.0000000
l л 1.0000000
n н 1.0000000
x x 1.0000000
o о 1.0000000
i и 1.0000000
d д 1.0000000
u у 1.0000000
u ю 0.5000000
t т 1.0000000
t ц 0.1056083
c ц 0.8943917
c ч 0.5000000
